Language model created by QuickLM on Tue Oct 17 14:26:56 EDT 2017
Copyright (c) 1996-2010 Carnegie Mellon University and Alexander I. Rudnicky

The model is in standard ARPA format, designed by Doug Paul while he was at MITRE.

The code that was used to produce this language model is available in Open Source.
Please visit http://www.speech.cs.cmu.edu/tools/ for more information

The (fixed) discount mass is 0.5. The backoffs are computed using the ratio method.
This model based on a corpus of 4 sentences and 8 words

\data\
ngram 1=8
ngram 2=10
ngram 3=7

\1-grams:
-0.8751 </s> -0.3010
-0.8751 <s> -0.2389
-1.4771 FORWARD -0.2389
-1.4771 GO -0.2863
-1.4771 LEFT -0.2389
-1.4771 RIGHT -0.2389
-1.4771 STOP -0.2389
-1.1761 TURN -0.2711

\2-grams:
-0.9031 <s> GO 0.0000
-0.9031 <s> STOP 0.0000
-0.6021 <s> TURN 0.0000
-0.3010 FORWARD </s> -0.3010
-0.3010 GO FORWARD 0.0000
-0.3010 LEFT </s> -0.3010
-0.3010 RIGHT </s> -0.3010
-0.3010 STOP </s> -0.3010
-0.6021 TURN LEFT 0.0000
-0.6021 TURN RIGHT 0.0000

\3-grams:
-0.3010 <s> GO FORWARD
-0.3010 <s> STOP </s>
-0.6021 <s> TURN LEFT
-0.6021 <s> TURN RIGHT
-0.3010 GO FORWARD </s>
-0.3010 TURN LEFT </s>
-0.3010 TURN RIGHT </s>

\end\
